
\data\
ngram 1=358
ngram 2=577
ngram 3=14

\1-grams:
-2.802089	".Z"	-0.03086372
-2.802089	".bz2"	-0.03921579
-2.802089	".gz"	-0.03921579
-2.802089	".tar.gz".	-0.04127895
-2.802089	".xz"	-0.03921579
-2.802089	"7-zip"	-0.03921579
-2.802089	"Research	-0.04127895
-2.802089	"gunzip"	-0.03086372
-2.802089	"tar"	-0.04127895
-2.802089	(2002),	-0.03156589
-2.802089	(2003),	-0.04127895
-2.802089	(2010),	-0.04127895
-2.802089	(This	-0.0399046
-2.802089	(highly	-0.04127895
-2.802089	(only	-0.04059232
-2.324968	(optional).	-0.1059735
-2.802089	(the	-0.04127895
-2.802089	--	-0.04127895
-2.802089	1820-1823,	-0.04127895
-2.802089	2,	-0.0399046
-2.802089	2010	-0.04059232
-2.802089	2022	-0.01730206
-2.802089	23,	-0.04127895
-2.802089	3.4.3	-0.03852589
-2.802089	333	-0.04127895
-2.802089	7-9,	-0.04127895
-2.802089	901-904,	-0.04127895
-2.802089	94025-3493	-0.01730206
-2.200029	<	-0.07914162
-1.258021	</s>
-99	<s>	-0.06669402
-2.200029	>	-0.1032753
-2.802089	A	-0.04127895
-2.501059	A.	-0.04059233
-2.802089	ANSI-C/C++	-0.04127895
-2.802089	About	-0.04059232
-2.802089	Alberta.	-0.01730206
-2.802089	Alternatively,	-0.03575526
-2.802089	Alumäe	-0.03086372
-2.802089	An	-0.04127895
-2.802089	Avenue,	-0.04127895
-2.802089	Back	-0.02804361
-2.802089	Be	-0.04127895
-2.802089	Besides	-0.02234787
-2.802089	Bilmes	-0.03086372
-2.501059	Building	-0.3377212
-2.802089	C	-0.04127895
-2.802089	C++	-0.04127895
-2.802089	CA	-0.04127895
-2.802089	Careers	-0.0399046
-2.802089	Community	-0.04127895
-2.802089	Conf.	-0.03921579
-2.802089	Contact	-0.04059232
-2.501059	Cygwin	-0.04059233
-2.802089	DOWNLOAD	-0.03156589
-2.802089	Denver.	-0.01730206
-2.324968	Divider	-0.0399046
-2.802089	Divisions	-0.0399046
-2.802089	Download	-0.01730206
-2.802089	Downloading	-0.03086372
-2.802089	Edmonton,	-0.04127895
-2.802089	Efficient	-0.04127895
-2.802089	Entropy	-0.0399046
-2.802089	Estimation	-0.03436329
-2.501059	Express	-0.03852589
-2.802089	Extensible	-0.0399046
-2.802089	Factored	-0.0399046
-2.802089	For	-0.04059232
-2.802089	GCC	-0.04059232
-2.802089	GCC.	-0.04127895
-2.324968	GNU	-0.0399046
-2.802089	Government	-0.04127895
-2.802089	HLT-NAACL,	-0.0399046
-2.802089	INSTALL	-0.0399046
-2.324968	If	-0.1244267
-2.802089	Instructions	-0.0399046
-2.802089	International	-0.03852589
-2.802089	International,	-0.04127895
-2.802089	Interspeech,	-0.0399046
-2.802089	Intl.	-0.04127895
-2.802089	It	-0.03783488
-2.802089	J.	-0.04059232
-2.802089	Japan.	-0.01730206
-2.802089	K.	-0.04127895
-2.802089	Kirchhoff	-0.04127895
-2.802089	Kurimo	-0.04127895
-2.324968	Language	-0.0399046
-2.802089	Last	-0.04127895
-2.501059	License	-0.03783489
-2.802089	License",	-0.03852589
-2.802089	M.	-0.04127895
-2.802089	MS	-0.04059232
-2.802089	Makuhari,	-0.04127895
-2.802089	Maximum	-0.04127895
-2.802089	Menlo	-0.04127895
-2.501059	Microsoft	-0.0392158
-2.802089	Modeling	-0.04127895
-2.802089	Models	-0.0399046
-2.802089	N-gram	-0.04127895
-2.802089	Newsroom	-0.0399046
-2.802089	Noncommercial	-0.04127895
-2.802089	Park,	-0.04127895
-2.802089	Prerequisites	-0.01730206
-2.802089	Privacy	-0.04127895
-2.324968	Proc.	-0.0399046
-2.802089	Processing,	-0.04127895
-2.802089	Published	-0.04059232
-2.802089	R&D	-0.04127895
-2.802089	Ravenswood	-0.04127895
-2.802089	Read	-0.02234787
-2.802089	Recent	-0.04127895
-2.802089	References	-0.01730206
-2.501059	Research	-0.3467477
-2.501059	SRI	-0.04059233
-2.802089	SRI's	-0.04127895
-1.625998	SRILM	-0.01993889
-2.802089	Sep	-0.04127895
-2.802089	Spoken	-0.0399046
-2.802089	Stolcke	-0.04127895
-2.501059	Studio	-0.03990461
-2.802089	T.	-0.04127895
-2.802089	TOOLKIT	-0.03921579
-2.802089	Tcl	-0.04127895
-2.103119	The	-0.03644958
-2.802089	This	-0.03783488
-2.802089	To	-0.03852589
-2.802089	Toolkit.	-0.0399046
-2.802089	UTF-encoded	-0.04127895
-2.802089	Unix-based	-0.04127895
-2.501059	Us	-0.01657643
-2.802089	Use	-0.01730206
-2.802089	Utils	-0.02804361
-2.802089	Vertical	-0.04127895
-2.501059	Visual	-0.3467477
-2.802089	We	-0.04127895
-2.501059	Windows	-0.04059233
-2.802089	XZ	-0.04127895
-2.802089	You	-0.03783488
-2.200029	a	-0.03714278
-2.802089	about	-0.04127895
-2.802089	above,	-0.04127895
-2.802089	address	-0.04127895
-2.802089	agencies,	-0.03086372
-2.802089	agreement	-0.02804361
-2.802089	all	-0.03921579
-2.802089	allow	-0.03156589
-2.802089	already	-0.03921579
-2.200029	also	-0.1651664
-2.802089	although	-0.04127895
-2.501059	an	-0.03086372
-1.597969	and	-0.02335606
-2.802089	are	-0.04127895
-2.802089	as	-0.03921579
-2.501059	available	-0.03990461
-2.802089	backoff,	-0.0399046
-2.200029	be	-0.03921579
-2.501059	below.	-0.04059233
-2.802089	binaries	-0.04059232
-2.802089	binaries,	-0.04059232
-2.802089	browser	-0.02804361
-2.200029	build	-0.01584958
-2.802089	button	-0.04059232
-2.501059	by	-0.04059233
-2.802089	bzip2	-0.02804361
-2.324968	can	-0.03296684
-2.802089	cannot	-0.04127895
-2.802089	change	-0.04127895
-2.802089	charge	-0.04127895
-2.802089	check	-0.03852589
-2.802089	cite	-0.02234787
-2.501059	cite:	-0.3234574
-2.802089	code	-0.03086372
-2.802089	code,	-0.03921579
-2.802089	comes	-0.0399046
-2.802089	commercial	-0.04127895
-2.802089	compilation	-0.03086372
-2.802089	compiler)	-0.04127895
-2.802089	compiler,	-0.04127895
-2.802089	compiler.	-0.01730206
-2.802089	comply	-0.0399046
-2.802089	component	-0.03436329
-2.200029	compressed	-0.1032753
-2.802089	consider	-0.04127895
-2.802089	contracts.	-0.04127895
-2.802089	control	-0.04127895
-2.802089	corporation.	-0.04127895
-2.802089	current	-0.04127895
-2.802089	data	-0.03505983
-2.802089	datafiles	-0.04127895
-2.802089	decide	-0.02234787
-2.802089	default.	-0.04127895
-2.802089	directory	-0.04127895
-2.802089	directory.	-0.01730206
-2.501059	distribution	-0.03783489
-2.501059	distribution,	-0.02449254
-2.802089	divider	-0.04127895
-2.324968	do	-0.2157892
-2.802089	document	-0.03086372
-2.103119	download	-0.06173144
-2.802089	download.	-0.03852589
-2.501059	downloaded	-0.02945596
-2.802089	embeddable	-0.04127895
-2.802089	ending	-0.03505983
-2.802089	entropy	-0.04127895
-2.802089	equivalent,	-0.02804361
-2.802089	executables).	-0.01730206
-2.802089	extension,	-0.0399046
-2.802089	external	-0.04127895
-2.802089	factored	-0.0399046
-2.802089	features:	-0.04059232
-2.324968	file	-0.03366563
-2.200029	files	-0.1018922
-2.802089	fill	-0.03505983
-2.802089	first	-0.04127895
-2.501059	following	-0.04059233
-2.103119	for	-0.01657643
-2.802089	form	-0.04059232
-2.802089	form.	-0.04127895
-2.802089	format,	-0.04059232
-2.802089	found	-0.03505983
-2.501059	free	-0.03366563
-2.802089	freely	-0.04059232
-2.802089	functionality	-0.03921579
-2.802089	funding	-0.04059232
-2.802089	g++	-0.04127895
-2.802089	gawk,	-0.04059232
-2.802089	generalized	-0.04127895
-2.802089	generally	-0.04127895
-2.802089	government	-0.04059232
-2.802089	grants	-0.03086372
-2.802089	gzip	-0.02804361
-2.802089	gzipped	-0.04127895
-2.103119	handle	-0.03852589
-2.501059	have	-0.02733572
-2.802089	higher.	-0.04127895
-2.802089	iconv	-0.0399046
-1.802089	in	-0.0362165
-2.802089	independent,	-0.04127895
-2.802089	indicate	-0.03921579
-2.802089	inform	-0.03575526
-2.802089	information	-0.03852589
-2.802089	inquire	-0.04127895
-2.802089	install	-0.02234787
-2.802089	installation.	-0.01730206
-2.802089	installed	-0.04059232
-2.802089	integrated	-0.03505983
-2.802089	interested	-0.03505983
-2.802089	into	-0.03921579
-2.103119	is	-0.02804361
-2.802089	it	-0.04059232
-2.802089	it,	-0.03921579
-2.802089	joining	-0.02234787
-2.324968	language	-0.2171723
-2.802089	layer,	-0.02804361
-2.324968	library	-0.03505983
-2.802089	library.)	-0.01730206
-2.802089	licensing	-0.03086372
-2.802089	licensing.	-0.01730206
-2.802089	list.	-0.01730206
-2.802089	log.	-0.01730206
-2.802089	mailing	-0.04127895
-2.802089	main	-0.04127895
-2.802089	make	-0.03436329
-2.802089	make,	-0.02804361
-2.501059	making	-0.3446812
-2.802089	many	-0.03436329
-2.802089	maximum	-0.04127895
-2.200029	may	-0.03575526
-2.802089	modeling	-0.04127895
-2.501059	models	-0.02804362
-2.802089	modified	-0.04127895
-2.802089	native	-0.04059232
-2.501059	need	-0.3285032
-2.802089	non-profit	-0.04127895
-2.802089	nonprofit	-0.04127895
-2.103119	not	-0.03366563
-1.760697	of	-0.1164187
-2.802089	offer	-0.04127895
-2.200029	on	-0.02377882
-2.501059	only	-0.0315659
-2.103119	or	-0.01657643
-2.802089	organizations	-0.0399046
-2.501059	other	-0.04059233
-2.802089	p7zip	-0.02804361
-2.802089	packages	-0.04127895
-2.802089	page.	-0.01730206
-2.802089	paper:	-0.01730206
-2.802089	parallel	-0.04127895
-2.802089	parties.	-0.0399046
-2.802089	passed	-0.03921579
-2.200029	please	-0.03783489
-2.802089	policy	-0.01730206
-2.802089	porting	-0.04127895
-2.324968	pp.	-0.0399046
-2.802089	precompiled	-0.04127895
-2.802089	preferably	-0.04127895
-2.802089	pressing	-0.02234787
-2.802089	previously	-0.04059232
-2.802089	proceed	-0.02804361
-2.802089	programs	-0.02804361
-2.802089	projects	-0.04127895
-2.802089	receive	-0.04127895
-2.802089	recommended).	-0.01730206
-2.802089	record	-0.03436329
-2.802089	release	-0.04059232
-2.501059	required	-0.3446812
-2.501059	research	-0.03990461
-2.802089	schools,	-0.04127895
-2.802089	scripting	-0.0399046
-2.802089	scripts.	-0.01730206
-2.200029	should	-0.1032753
-2.501059	so	-0.3419106
-2.324968	software	-0.03714278
-2.802089	software.	-0.01730206
-2.802089	some	-0.03436329
-2.324968	source	-0.0399046
-2.802089	start	-0.02234787
-2.802089	store	-0.02234787
-2.802089	structure.	-0.01730206
-2.802089	sure	-0.02804361
-2.802089	system.	-0.04059232
-2.802089	systems.	-0.04127895
-2.802089	tar	-0.04127895
-2.802089	tell	-0.03921579
-2.802089	template-capable	-0.04127895
-2.802089	test	-0.04127895
-2.802089	text	-0.03921579
-2.802089	than	-0.04127895
-2.802089	that	-0.0399046
-1.354931	the	-0.09579184
-2.802089	they	-0.03921579
-2.802089	third	-0.04127895
-1.501059	to	-0.2345872
-2.802089	tools:	-0.01730206
-2.802089	top-level	-0.04059232
-2.802089	under	-0.04127895
-2.802089	universities,	-0.03086372
-2.501059	unpack	-0.3285032
-2.802089	updates.	-0.04127895
-2.103119	use	-0.1140353
-2.802089	user	-0.04127895
-2.802089	uses	-0.03921579
-2.501059	using	-0.01146273
-2.802089	utilities	-0.02804361
-2.802089	utility	-0.04127895
-2.501059	version	-0.03016041
-2.802089	versions	-0.03436329
-2.802089	vol.	-0.04127895
-2.501059	want	-0.334199
-2.802089	we	-0.03783488
-2.023938	will	-0.03156589
-2.324968	with	-0.02091218
-2.802089	work.	-0.01730206
-1.847847	you	-0.0698164
-2.802089	you,	-0.03921579
-2.200029	your	-0.03921579
-2.802089	yourself.	-0.04127895
-2.802089	©2011	-0.04059232

\2-grams:
-1.035716	".Z" and
-1.035716	".bz2" compressed
-1.035716	".gz" compressed
-1.035716	".tar.gz". You
-1.035716	".xz" compressed
-1.035716	"7-zip" compressed
-1.035716	"Research Community
-1.035716	"gunzip" and
-1.035716	"tar" utilities
-1.035716	(2002), SRILM
-1.035716	(2003), Factored
-1.035716	(2010), Efficient
-1.035716	(This library
-1.035716	(highly recommended).
-1.035716	(only required
-0.5854036	(optional). </s>
-1.035716	(the C++
-1.035716	-- An
-1.035716	1820-1823, Makuhari,
-1.035716	2, pp.
-1.035716	2010 Express
-1.035716	2022 </s>
-1.035716	23, 2022
-1.035716	3.4.3 or
-1.035716	333 Ravenswood
-1.035716	7-9, Edmonton,
-1.035716	901-904, Denver.
-1.035716	94025-3493 </s>
-0.7103423	< <	0.01769979
-1.637776	< </s>
-2.579784	<s> >
-2.579784	<s> A
-2.579784	<s> A.
-2.579784	<s> About
-2.579784	<s> Back
-2.579784	<s> Besides
-2.579784	<s> Building
-2.579784	<s> Download
-2.579784	<s> Downloading
-1.65235	<s> GNU
-2.579784	<s> Government
-1.501588	<s> If	0.01030107
-2.579784	<s> J.
-2.579784	<s> Last
-2.579784	<s> Noncommercial
-2.579784	<s> Prerequisites
-2.579784	<s> Published
-2.579784	<s> References
-1.501588	<s> Research	0.227785
-2.579784	<s> SRI
-2.579784	<s> SRILM
-2.579784	<s> T.
-1.148584	<s> The
-2.579784	<s> To
-2.579784	<s> XZ
-2.579784	<s> bzip2
-2.579784	<s> p7zip
-2.579784	<s> ©2011
-0.7103423	> >	0.01769979
-1.637776	> DOWNLOAD
-1.035716	A template-capable
-1.336746	A. Bilmes
-1.336746	A. Stolcke
-1.035716	ANSI-C/C++ compiler,
-1.035716	About Us
-1.035716	Alberta. </s>
-1.035716	Alternatively, you
-1.035716	Alumäe and
-1.035716	An Extensible
-1.035716	Avenue, Menlo
-1.035716	Back to
-1.035716	Be sure
-1.035716	Besides the
-1.035716	Bilmes and
-0.2585502	Building SRILM	-0.08717225
-1.035716	C library.)
-1.035716	C++ compiler)
-1.035716	CA 94025-3493
-1.035716	Careers Divider
-1.035716	Community License",
-1.035716	Conf. on
-1.035716	Contact Us
-1.336746	Cygwin comes
-1.336746	Cygwin porting
-1.035716	DOWNLOAD SRILM
-1.035716	Denver. </s>
-1.512837	Divider Careers
-1.512837	Divider Contact
-1.512837	Divider Newsroom
-1.035716	Divisions Divider
-1.035716	Download </s>
-1.035716	Downloading and
-1.035716	Edmonton, Alberta.
-1.035716	Efficient Estimation
-1.035716	Entropy Language
-1.035716	Estimation of
-1.336746	Express compiler.
-1.336746	Express should
-1.035716	Extensible Language
-1.035716	Factored language
-1.035716	For other
-1.035716	GCC version
-1.035716	GCC. Recent
-1.512837	GNU gawk,
-1.512837	GNU gzip
-1.512837	GNU make,
-1.035716	Government agencies,
-1.035716	HLT-NAACL, pp.
-1.035716	INSTALL file
-0.5854036	If you
-1.035716	Instructions can
-1.035716	International is
-1.035716	International, 333
-1.035716	Interspeech, pp.
-1.035716	Intl. Conf.
-1.035716	It will
-1.035716	J. A.
-1.035716	Japan. </s>
-1.035716	K. Kirchhoff
-1.035716	Kirchhoff (2003),
-1.035716	Kurimo (2010),
-1.512837	Language Modeling
-1.512837	Language Models
-1.512837	Language Processing,
-1.035716	Last modified
-1.336746	License document
-1.336746	License or
-1.035716	License", for
-1.035716	M. Kurimo
-1.035716	MS Visual
-1.035716	Makuhari, Japan.
-1.035716	Maximum Entropy
-1.035716	Menlo Park,
-1.336746	Microsoft Visual
-1.336746	Microsoft Windows
-1.035716	Modeling Toolkit.
-1.035716	Models with
-1.035716	N-gram features:
-1.035716	Newsroom Divider
-1.035716	Noncommercial Use
-1.035716	Park, CA
-1.035716	Prerequisites </s>
-1.035716	Privacy policy
-1.512837	Proc. HLT-NAACL,
-1.512837	Proc. Interspeech,
-1.512837	Proc. Intl.
-1.035716	Processing, vol.
-1.035716	Published research
-1.035716	R&D Divisions
-1.035716	Ravenswood Avenue,
-1.035716	Read the
-1.035716	Recent versions
-1.035716	References </s>
-0.2585502	Research making	0.227785
-1.336746	SRI International
-1.336746	SRI International,
-1.035716	SRI's "Research
-2.211807	SRILM --
-1.133611	SRILM </s>
-2.211807	SRILM TOOLKIT
-2.211807	SRILM distribution,
-2.211807	SRILM extension,
-2.211807	SRILM free
-2.211807	SRILM is
-2.211807	SRILM main
-2.211807	SRILM may
-2.211807	SRILM on
-2.211807	SRILM or
-2.211807	SRILM programs
-2.211807	SRILM user
-2.211807	SRILM you
-1.035716	Sep 23,
-1.035716	Spoken Language
-1.035716	Stolcke (2002),
-1.336746	Studio 2010
-1.336746	Studio Express
-1.035716	T. Alumäe
-1.035716	TOOLKIT <
-1.035716	Tcl embeddable
-1.734686	The Cygwin
-1.734686	The Tcl
-1.734686	The distribution
-1.734686	The iconv
-1.734686	The only
-1.035716	This will
-1.035716	To download
-1.035716	Toolkit. Proc.
-1.035716	UTF-encoded text
-1.035716	Unix-based systems.
-1.336746	Us </s>
-1.336746	Us Vertical
-1.035716	Use </s>
-1.035716	Utils to
-1.035716	Vertical divider
-0.2585502	Visual Studio
-1.035716	We cannot
-1.336746	Windows binaries
-1.336746	Windows system.
-1.035716	XZ Utils
-1.035716	You will
-1.637776	a Microsoft
-1.637776	a directory
-1.637776	a file
-1.637776	a record
-1.035716	about commercial
-1.035716	above, although
-1.035716	address information
-1.035716	agencies, and
-1.035716	agreement to
-1.035716	all be
-1.035716	allow SRILM
-1.035716	already be
-0.5595802	also cite:	0.227785
-1.637776	also need
-1.637776	also work.
-1.035716	although they
-1.336746	an SRILM
-1.336746	an independent,
-2.239836	and ".gz"
-2.239836	and "tar"
-2.239836	and Building
-2.239836	and K.
-2.239836	and M.
-2.239836	and build
-2.239836	and contracts.
-2.239836	and generalized
-2.239836	and indicate
-2.239836	and install
-2.239836	and installation.
-2.239836	and non-profit
-2.239836	and schools,
-2.239836	and the
-1.16164	and to
-1.035716	are generally
-1.035716	as a
-1.336746	available only
-1.336746	available tools:
-1.035716	backoff, Proc.
-1.637776	be found
-1.637776	be installed
-1.637776	be integrated
-1.637776	be passed
-1.336746	below. Read
-1.336746	below. This
-1.035716	binaries using
-1.035716	binaries, so
-1.035716	browser to
-1.637776	build SRILM
-1.637776	build and
-1.637776	build native
-1.637776	build or
-1.035716	button below.
-1.336746	by default.
-1.336746	by pressing
-1.035716	bzip2 to
-1.512837	can be
-1.512837	can build
-1.512837	can download
-1.035716	cannot offer
-1.035716	change log.
-1.035716	charge under
-1.035716	check for
-1.035716	cite the
-0.2585502	cite: </s>
-1.035716	code and
-1.035716	code, please
-1.035716	comes with
-1.035716	commercial licensing.
-1.035716	compilation and
-1.035716	compiler) component
-1.035716	compiler, preferably
-1.035716	compiler. </s>
-1.035716	comply with
-1.035716	component of
-1.637776	compressed datafiles
-0.7103423	compressed files	-0.5079471
-1.035716	consider joining
-1.035716	contracts. For
-1.035716	control compilation
-1.035716	corporation. Privacy
-1.035716	current release
-1.035716	data in
-1.035716	datafiles (highly
-1.035716	decide the
-1.035716	default. Alternatively,
-1.035716	directory structure.
-1.035716	directory. </s>
-1.336746	distribution directory.
-1.336746	distribution is
-1.336746	distribution, and
-1.336746	distribution, you
-1.035716	divider R&D
-0.4346415	do not
-1.512837	do want
-1.035716	document and
-1.734686	download SRILM
-1.734686	download g++
-0.8072523	download the	-0.05896281
-1.035716	download. The
-1.336746	downloaded SRILM
-1.336746	downloaded file
-1.035716	embeddable scripting
-1.035716	ending in
-1.035716	entropy modeling
-1.035716	equivalent, to
-1.035716	executables). </s>
-1.035716	extension, Proc.
-1.035716	external funding
-1.035716	factored language
-1.035716	features: an
-1.512837	file ending
-1.512837	file in
-1.512837	file into
-0.7103423	files (optional).	-0.4714241
-1.637776	files on
-1.035716	fill in
-1.035716	first fill
-1.336746	following freely
-1.336746	following paper:
-1.734686	for many
-1.734686	for some
-1.734686	for the
-1.734686	for use
-1.734686	for you,
-1.035716	form below.
-1.035716	form. We
-1.035716	format, so
-1.035716	found in
-1.336746	free MS
-1.336746	free of
-1.035716	freely available
-1.035716	functionality should
-1.035716	funding other
-1.035716	g++ (the
-1.035716	gawk, required
-1.035716	generalized parallel
-1.035716	generally interested
-1.035716	government research
-1.035716	grants and
-1.035716	gzip to
-1.035716	gzipped tar
-1.734686	handle ".Z"
-1.734686	handle ".bz2"
-1.734686	handle ".xz"
-1.734686	handle "7-zip"
-1.734686	handle UTF-encoded
-1.336746	have previously
-1.336746	have to
-1.035716	higher. Be
-1.035716	iconv library
-2.035716	in ".tar.gz".
-2.035716	in a
-2.035716	in gzipped
-2.035716	in it,
-2.035716	in projects
-2.035716	in source
-1.108282	in the
-2.035716	in your
-1.035716	independent, nonprofit
-1.035716	indicate your
-1.035716	inform you
-1.035716	information is
-1.035716	inquire about
-1.035716	install the
-1.035716	installation. </s>
-1.035716	installed by
-1.035716	integrated in
-1.035716	interested in
-1.035716	into a
-1.734686	is an
-1.734686	is as
-1.734686	is available
-1.734686	is in
-1.734686	is not
-1.035716	it by
-1.035716	it, please
-1.035716	joining the
-1.512837	language library
-0.4346415	language models
-1.035716	layer, to
-1.512837	library (only
-1.512837	library may
-1.512837	library or
-1.035716	library.) </s>
-1.035716	licensing and
-1.035716	licensing. </s>
-1.035716	list. </s>
-1.035716	log. </s>
-1.035716	mailing list.
-1.035716	main page.
-1.035716	make of
-1.035716	make, to
-0.2585502	making use	-0.01212235
-1.035716	many of
-1.035716	maximum entropy
-1.637776	may already
-1.637776	may cite
-1.637776	may not
-1.637776	may want
-1.035716	modeling functionality
-1.336746	models and
-1.336746	models should
-1.035716	modified Sep
-1.035716	native Windows
-0.2585502	need the
-1.035716	non-profit organizations
-1.035716	nonprofit corporation.
-1.734686	not all
-1.734686	not be
-1.734686	not for
-1.734686	not proceed
-1.734686	not receive
-2.077108	of GCC.
-2.077108	of Maximum
-2.077108	of Microsoft
-2.077108	of charge
-2.077108	of factored
-2.077108	of software
-0.6459087	of the
-2.077108	of your
-1.035716	offer precompiled
-1.637776	on Spoken
-1.637776	on Unix-based
-1.637776	on a
-1.637776	on to
-1.336746	only in
-1.336746	only use
-1.734686	or are
-1.734686	or download
-1.734686	or equivalent,
-1.734686	or higher.
-1.734686	or the
-1.035716	organizations can
-1.336746	other than
-1.336746	other uses
-1.035716	p7zip to
-1.035716	packages above,
-1.035716	page. </s>
-1.035716	paper: </s>
-1.035716	parallel backoff,
-1.035716	parties. If
-1.035716	passed on
-1.637776	please consider
-1.637776	please do
-1.637776	please first
-1.637776	please inquire
-1.035716	policy </s>
-1.035716	porting layer,
-1.512837	pp. 1820-1823,
-1.512837	pp. 7-9,
-1.512837	pp. 901-904,
-1.035716	precompiled binaries,
-1.035716	preferably GCC
-1.035716	pressing the
-1.035716	previously downloaded
-1.035716	proceed to
-1.035716	programs to
-1.035716	projects that
-1.035716	receive external
-1.035716	recommended). </s>
-1.035716	record of
-1.035716	release version
-0.2585502	required for
-1.336746	research grants
-1.336746	research using
-1.035716	schools, universities,
-1.035716	scripting language
-1.035716	scripts. </s>
-0.7103423	should also	0.06366199
-1.637776	should tell
-0.2585502	so you
-1.512837	software is
-1.512837	software updates.
-1.512837	software yourself.
-1.035716	software. </s>
-1.035716	some of
-1.512837	source code
-1.512837	source code,
-1.512837	source form.
-1.035716	start the
-1.035716	store the
-1.035716	structure. </s>
-1.035716	sure to
-1.035716	system. Cygwin
-1.035716	systems. (This
-1.035716	tar format,
-1.035716	tell your
-1.035716	template-capable ANSI-C/C++
-1.035716	test executables).
-1.035716	text files
-1.035716	than government
-1.035716	that do
-2.482874	the "gunzip"
-2.482874	the INSTALL
-1.404678	the License
-1.404678	the SRILM
-2.482874	the button
-2.482874	the change
-2.482874	the current
-2.482874	the data
-2.482874	the distribution,
-2.482874	the download.
-2.482874	the downloaded
-1.404678	the following
-2.482874	the form
-2.482874	the free
-2.482874	the licensing
-2.482874	the maximum
-2.482874	the packages
-1.404678	the software
-2.482874	the software.
-1.404678	the source
-2.482874	the test
-2.482874	the top-level
-2.482874	the utility
-1.035716	they may
-1.035716	third parties.
-2.336746	to SRILM
-2.336746	to allow
-1.25855	to build
-2.336746	to check
-2.336746	to comply
-2.336746	to control
-1.25855	to download	-0.04674694
-0.60206	to handle
-2.336746	to inform
-2.336746	to store
-2.336746	to third
-1.25855	to unpack	0.227785
-2.336746	to use
-1.035716	tools: </s>
-1.035716	top-level distribution
-1.035716	under SRI's
-1.035716	universities, and
-0.2585502	unpack the
-1.035716	updates. It
-1.734686	use SRILM
-1.734686	use in
-0.6564902	use of
-1.734686	use we
-1.035716	user mailing
-1.035716	uses please
-1.336746	using SRILM
-1.336746	using the
-1.035716	utilities to
-1.035716	utility scripts.
-1.336746	version 3.4.3
-1.336746	version and
-1.035716	versions of
-1.035716	vol. 2,
-0.2585502	want to
-1.035716	we will
-1.813867	will also
-1.813867	will have
-1.813867	will make
-1.813867	will need
-1.813867	will not
-1.813867	will start
-1.512837	with N-gram
-1.512837	with it
-1.512837	with the
-1.035716	work. </s>
-1.989958	you can
-1.989958	you decide
-1.989958	you do
-1.989958	you have
-1.989958	you may
-1.989958	you of
-1.989958	you should
-0.9117627	you will
-1.035716	you, please
-1.637776	your C
-1.637776	your address
-1.637776	your agreement
-1.637776	your browser
-1.035716	yourself. Instructions
-1.035716	©2011 SRI

\3-grams:
-0.1249387	files (optional). </s>
-0.7922632	< < <
-0.7922632	> > >
-0.6161719	<s> If you
-0.6161719	<s> Research making
-0.6161719	Building SRILM </s>
-0.7922632	should also cite:
-0.6161719	also cite: </s>
-0.6161719	to download the
-0.1249387	compressed files (optional).
-0.6161719	Research making use
-0.7922632	download the source
-0.6161719	to unpack the
-0.6161719	making use of

\end\
